<?xml version="1.0"?>
<opencv_storage>
<cascade>
  <stageType>BOOST</stageType>
  <featureType>HAAR</featureType>
  <height>90</height>
  <width>90</width>
  <stageParams>
    <boostType>GAB</boostType>
    <minHitRate>9.9500000476837158e-01</minHitRate>
    <maxFalseAlarm>5.0000000000000000e-01</maxFalseAlarm>
    <weightTrimRate>9.4999999999999996e-01</weightTrimRate>
    <maxDepth>1</maxDepth>
    <maxWeakCount>100</maxWeakCount></stageParams>
  <featureParams>
    <maxCatCount>0</maxCatCount>
    <featSize>1</featSize>
    <mode>BASIC</mode></featureParams>
  <stageNum>7</stageNum>
  <stages>
    <!-- stage 0 -->
    <_>
      <maxWeakCount>8</maxWeakCount>
      <stageThreshold>-1.3237547874450684e+00</stageThreshold>
      <weakClassifiers>
        <_>
          <internalNodes>
            0 -1 44 -5.1667792722582817e-03</internalNodes>
          <leafValues>
            8.0842638015747070e-01 -3.7106245756149292e-01</leafValues></_>
        <_>
          <internalNodes>
            0 -1 1 1.9803799688816071e-02</internalNodes>
          <leafValues>
            -5.7553076744079590e-01 5.9251827001571655e-01</leafValues></_>
        <_>
          <internalNodes>
            0 -1 65 3.1870994716882706e-03</internalNodes>
          <leafValues>
            -3.3652830123901367e-01 8.1352484226226807e-01</leafValues></_>
        <_>
          <internalNodes>
            0 -1 22 -3.8089309819042683e-03</internalNodes>
          <leafValues>
            6.0863137245178223e-01 -4.4066852331161499e-01</leafValues></_>
        <_>
          <internalNodes>
            0 -1 27 -1.5135501744225621e-03</internalNodes>
          <leafValues>
            7.0192366838455200e-01 -3.6588978767395020e-01</leafValues></_>
        <_>
          <internalNodes>
            0 -1 63 -1.5637387987226248e-03</internalNodes>
          <leafValues>
            7.8136479854583740e-01 -2.4198874831199646e-01</leafValues></_>
        <_>
          <internalNodes>
            0 -1 16 4.2455000802874565e-03</internalNodes>
          <leafValues>
            -3.1013247370719910e-01 6.0849475860595703e-01</leafValues></_>
        <_>
          <internalNodes>
            0 -1 31 -1.4655682258307934e-02</internalNodes>
          <leafValues>
            -6.7523622512817383e-01 2.6874640583992004e-01</leafValues></_></weakClassifiers></_>
    <!-- stage 1 -->
    <_>
      <maxWeakCount>8</maxWeakCount>
      <stageThreshold>-9.7163349390029907e-01</stageThreshold>
      <weakClassifiers>
        <_>
          <internalNodes>
            0 -1 4 1.0342352092266083e-02</internalNodes>
          <leafValues>
            -5.2147239446640015e-01 6.6646742820739746e-01</leafValues></_>
        <_>
          <internalNodes>
            0 -1 68 1.2777341529726982e-02</internalNodes>
          <leafValues>
            -2.8918200731277466e-01 8.8650232553482056e-01</leafValues></_>
        <_>
          <internalNodes>
            0 -1 12 -8.7973913177847862e-03</internalNodes>
          <leafValues>
            7.8084534406661987e-01 -3.2958364486694336e-01</leafValues></_>
        <_>
          <internalNodes>
            0 -1 37 1.7272403929382563e-03</internalNodes>
          <leafValues>
            -3.7625578045845032e-01 6.5147382020950317e-01</leafValues></_>
        <_>
          <internalNodes>
            0 -1 33 1.4066608622670174e-02</internalNodes>
          <leafValues>
            -2.7073737978935242e-01 8.0996602773666382e-01</leafValues></_>
        <_>
          <internalNodes>
            0 -1 32 1.1315423995256424e-02</internalNodes>
          <leafValues>
            -2.1842892467975616e-01 7.9785192012786865e-01</leafValues></_>
        <_>
          <internalNodes>
            0 -1 52 -2.3341447114944458e-02</internalNodes>
          <leafValues>
            -7.0862615108489990e-01 2.8621086478233337e-01</leafValues></_>
        <_>
          <internalNodes>
            0 -1 59 2.0812023431062698e-03</internalNodes>
          <leafValues>
            -2.6846504211425781e-01 7.1658319234848022e-01</leafValues></_></weakClassifiers></_>
    <!-- stage 2 -->
    <_>
      <maxWeakCount>10</maxWeakCount>
      <stageThreshold>-1.6160335540771484e+00</stageThreshold>
      <weakClassifiers>
        <_>
          <internalNodes>
            0 -1 46 -1.0945314541459084e-02</internalNodes>
          <leafValues>
            8.1224817037582397e-01 -2.1494464576244354e-01</leafValues></_>
        <_>
          <internalNodes>
            0 -1 15 -3.6508308257907629e-03</internalNodes>
          <leafValues>
            8.2515764236450195e-01 -2.3257468640804291e-01</leafValues></_>
        <_>
          <internalNodes>
            0 -1 57 -9.8082479089498520e-03</internalNodes>
          <leafValues>
            7.6089257001876831e-01 -3.3248069882392883e-01</leafValues></_>
        <_>
          <internalNodes>
            0 -1 17 7.4083841172978282e-04</internalNodes>
          <leafValues>
            -3.6939474940299988e-01 6.7639696598052979e-01</leafValues></_>
        <_>
          <internalNodes>
            0 -1 56 -3.9056004025042057e-03</internalNodes>
          <leafValues>
            8.3212590217590332e-01 -1.8965347111225128e-01</leafValues></_>
        <_>
          <internalNodes>
            0 -1 3 9.7067244350910187e-03</internalNodes>
          <leafValues>
            -6.7570424079895020e-01 2.7860051393508911e-01</leafValues></_>
        <_>
          <internalNodes>
            0 -1 42 1.5411754138767719e-03</internalNodes>
          <leafValues>
            -3.5721343755722046e-01 5.3782373666763306e-01</leafValues></_>
        <_>
          <internalNodes>
            0 -1 30 -1.1948119848966599e-02</internalNodes>
          <leafValues>
            -7.2711730003356934e-01 2.2354266047477722e-01</leafValues></_>
        <_>
          <internalNodes>
            0 -1 39 5.2167810499668121e-03</internalNodes>
          <leafValues>
            -2.2293418645858765e-01 7.7346509695053101e-01</leafValues></_>
        <_>
          <internalNodes>
            0 -1 47 7.3557258583605289e-03</internalNodes>
          <leafValues>
            -2.4763849377632141e-01 7.5532388687133789e-01</leafValues></_></weakClassifiers></_>
    <!-- stage 3 -->
    <_>
      <maxWeakCount>10</maxWeakCount>
      <stageThreshold>-1.0801115036010742e+00</stageThreshold>
      <weakClassifiers>
        <_>
          <internalNodes>
            0 -1 43 1.0773047804832458e-02</internalNodes>
          <leafValues>
            -4.0458014607429504e-01 6.6469305753707886e-01</leafValues></_>
        <_>
          <internalNodes>
            0 -1 7 8.2188863307237625e-03</internalNodes>
          <leafValues>
            -2.9701444506645203e-01 7.8378474712371826e-01</leafValues></_>
        <_>
          <internalNodes>
            0 -1 60 -1.3830346986651421e-02</internalNodes>
          <leafValues>
            8.1662279367446899e-01 -2.6146197319030762e-01</leafValues></_>
        <_>
          <internalNodes>
            0 -1 8 -3.3089285716414452e-03</internalNodes>
          <leafValues>
            5.1085364818572998e-01 -4.3580311536788940e-01</leafValues></_>
        <_>
          <internalNodes>
            0 -1 6 1.0944977402687073e-02</internalNodes>
          <leafValues>
            -3.2416653633117676e-01 5.9376859664916992e-01</leafValues></_>
        <_>
          <internalNodes>
            0 -1 50 4.3110772967338562e-03</internalNodes>
          <leafValues>
            -2.6758232712745667e-01 6.3480877876281738e-01</leafValues></_>
        <_>
          <internalNodes>
            0 -1 41 -3.4168444108217955e-03</internalNodes>
          <leafValues>
            3.4323337674140930e-01 -4.8156008124351501e-01</leafValues></_>
        <_>
          <internalNodes>
            0 -1 62 -2.1879472769796848e-03</internalNodes>
          <leafValues>
            6.0986334085464478e-01 -2.4808226525783539e-01</leafValues></_>
        <_>
          <internalNodes>
            0 -1 26 9.9123287945985794e-03</internalNodes>
          <leafValues>
            -2.2270081937313080e-01 6.9038403034210205e-01</leafValues></_>
        <_>
          <internalNodes>
            0 -1 10 -2.2355258464813232e-02</internalNodes>
          <leafValues>
            -8.1100106239318848e-01 1.9452583789825439e-01</leafValues></_></weakClassifiers></_>
    <!-- stage 4 -->
    <_>
      <maxWeakCount>11</maxWeakCount>
      <stageThreshold>-1.4764405488967896e+00</stageThreshold>
      <weakClassifiers>
        <_>
          <internalNodes>
            0 -1 14 6.5739694982767105e-03</internalNodes>
          <leafValues>
            -5.4400849342346191e-01 5.5651468038558960e-01</leafValues></_>
        <_>
          <internalNodes>
            0 -1 28 5.1883459091186523e-03</internalNodes>
          <leafValues>
            -2.9046839475631714e-01 7.9364842176437378e-01</leafValues></_>
        <_>
          <internalNodes>
            0 -1 58 6.2034530565142632e-03</internalNodes>
          <leafValues>
            -2.8286218643188477e-01 8.1106317043304443e-01</leafValues></_>
        <_>
          <internalNodes>
            0 -1 13 7.7967359684407711e-03</internalNodes>
          <leafValues>
            -2.8242480754852295e-01 7.3033607006072998e-01</leafValues></_>
        <_>
          <internalNodes>
            0 -1 35 6.9337785243988037e-03</internalNodes>
          <leafValues>
            -2.9987642168998718e-01 6.9861131906509399e-01</leafValues></_>
        <_>
          <internalNodes>
            0 -1 66 1.7478037625551224e-02</internalNodes>
          <leafValues>
            -2.3180411756038666e-01 6.8579083681106567e-01</leafValues></_>
        <_>
          <internalNodes>
            0 -1 53 6.1957924626767635e-03</internalNodes>
          <leafValues>
            -2.1148683130741119e-01 7.3395967483520508e-01</leafValues></_>
        <_>
          <internalNodes>
            0 -1 24 7.2623146697878838e-03</internalNodes>
          <leafValues>
            -2.2458173334598541e-01 6.3034117221832275e-01</leafValues></_>
        <_>
          <internalNodes>
            0 -1 48 5.3945905528962612e-04</internalNodes>
          <leafValues>
            -3.0880299210548401e-01 4.8521524667739868e-01</leafValues></_>
        <_>
          <internalNodes>
            0 -1 29 -1.9497539848089218e-02</internalNodes>
          <leafValues>
            -6.5118485689163208e-01 2.2478340566158295e-01</leafValues></_>
        <_>
          <internalNodes>
            0 -1 38 1.7349340021610260e-02</internalNodes>
          <leafValues>
            -2.2362303733825684e-01 7.5053709745407104e-01</leafValues></_></weakClassifiers></_>
    <!-- stage 5 -->
    <_>
      <maxWeakCount>10</maxWeakCount>
      <stageThreshold>-9.8317754268646240e-01</stageThreshold>
      <weakClassifiers>
        <_>
          <internalNodes>
            0 -1 2 1.9111059606075287e-02</internalNodes>
          <leafValues>
            -4.6182495355606079e-01 5.7214766740798950e-01</leafValues></_>
        <_>
          <internalNodes>
            0 -1 54 5.1741264760494232e-03</internalNodes>
          <leafValues>
            -2.8529199957847595e-01 7.4413943290710449e-01</leafValues></_>
        <_>
          <internalNodes>
            0 -1 51 4.5738844200968742e-03</internalNodes>
          <leafValues>
            -2.6995766162872314e-01 7.2924214601516724e-01</leafValues></_>
        <_>
          <internalNodes>
            0 -1 25 -6.0368431732058525e-03</internalNodes>
          <leafValues>
            6.6930031776428223e-01 -3.2968643307685852e-01</leafValues></_>
        <_>
          <internalNodes>
            0 -1 5 2.4830635637044907e-02</internalNodes>
          <leafValues>
            -6.1930084228515625e-01 3.1741771101951599e-01</leafValues></_>
        <_>
          <internalNodes>
            0 -1 18 -6.4911223016679287e-03</internalNodes>
          <leafValues>
            6.9335484504699707e-01 -2.5506016612052917e-01</leafValues></_>
        <_>
          <internalNodes>
            0 -1 61 -5.3736534900963306e-03</internalNodes>
          <leafValues>
            6.8561929464340210e-01 -2.2913907468318939e-01</leafValues></_>
        <_>
          <internalNodes>
            0 -1 49 1.3655179645866156e-03</internalNodes>
          <leafValues>
            -3.0748450756072998e-01 5.2857559919357300e-01</leafValues></_>
        <_>
          <internalNodes>
            0 -1 34 -2.7164567727595568e-03</internalNodes>
          <leafValues>
            -7.0969909429550171e-01 2.2799699008464813e-01</leafValues></_>
        <_>
          <internalNodes>
            0 -1 9 6.6119125112891197e-03</internalNodes>
          <leafValues>
            -2.2620752453804016e-01 6.6375792026519775e-01</leafValues></_></weakClassifiers></_>
    <!-- stage 6 -->
    <_>
      <maxWeakCount>12</maxWeakCount>
      <stageThreshold>-1.0932446718215942e+00</stageThreshold>
      <weakClassifiers>
        <_>
          <internalNodes>
            0 -1 67 -1.5657404437661171e-02</internalNodes>
          <leafValues>
            6.2163853645324707e-01 -3.0165287852287292e-01</leafValues></_>
        <_>
          <internalNodes>
            0 -1 19 -2.9789293184876442e-03</internalNodes>
          <leafValues>
            7.2855132818222046e-01 -2.6759174466133118e-01</leafValues></_>
        <_>
          <internalNodes>
            0 -1 40 -1.5885818749666214e-02</internalNodes>
          <leafValues>
            7.9003518819808960e-01 -2.2988554835319519e-01</leafValues></_>
        <_>
          <internalNodes>
            0 -1 64 6.3501670956611633e-03</internalNodes>
          <leafValues>
            -2.6463785767555237e-01 7.3321992158889771e-01</leafValues></_>
        <_>
          <internalNodes>
            0 -1 20 5.3397901356220245e-03</internalNodes>
          <leafValues>
            -2.2348335385322571e-01 7.4044138193130493e-01</leafValues></_>
        <_>
          <internalNodes>
            0 -1 55 9.0368129312992096e-03</internalNodes>
          <leafValues>
            -2.1342600882053375e-01 7.2282767295837402e-01</leafValues></_>
        <_>
          <internalNodes>
            0 -1 36 2.1698870696127415e-03</internalNodes>
          <leafValues>
            -4.7793304920196533e-01 3.0992650985717773e-01</leafValues></_>
        <_>
          <internalNodes>
            0 -1 11 -2.0005926489830017e-02</internalNodes>
          <leafValues>
            7.4394190311431885e-01 -1.8493226170539856e-01</leafValues></_>
        <_>
          <internalNodes>
            0 -1 23 -1.0312838479876518e-02</internalNodes>
          <leafValues>
            -7.3983669281005859e-01 2.1038392186164856e-01</leafValues></_>
        <_>
          <internalNodes>
            0 -1 45 -7.1168281137943268e-03</internalNodes>
          <leafValues>
            5.4257017374038696e-01 -2.5682449340820312e-01</leafValues></_>
        <_>
          <internalNodes>
            0 -1 21 4.8606526106595993e-03</internalNodes>
          <leafValues>
            -1.8380318582057953e-01 7.8461420536041260e-01</leafValues></_>
        <_>
          <internalNodes>
            0 -1 0 7.9170782119035721e-03</internalNodes>
          <leafValues>
            -2.8671243786811829e-01 4.4626858830451965e-01</leafValues></_></weakClassifiers></_></stages>
  <features>
    <_>
      <rects>
        <_>
          0 10 12 77 -1.</_>
        <_>
          6 10 6 77 2.</_></rects>
      <tilted>0</tilted></_>
    <_>
      <rects>
        <_>
          0 21 32 50 -1.</_>
        <_>
          16 21 16 50 2.</_></rects>
      <tilted>0</tilted></_>
    <_>
      <rects>
        <_>
          0 23 54 32 -1.</_>
        <_>
          18 23 18 32 3.</_></rects>
      <tilted>0</tilted></_>
    <_>
      <rects>
        <_>
          0 31 90 50 -1.</_>
        <_>
          30 31 30 50 3.</_></rects>
      <tilted>0</tilted></_>
    <_>
      <rects>
        <_>
          0 41 54 10 -1.</_>
        <_>
          18 41 18 10 3.</_></rects>
      <tilted>0</tilted></_>
    <_>
      <rects>
        <_>
          0 50 90 28 -1.</_>
        <_>
          30 50 30 28 3.</_></rects>
      <tilted>0</tilted></_>
    <_>
      <rects>
        <_>
          10 0 70 10 -1.</_>
        <_>
          10 5 70 5 2.</_></rects>
      <tilted>0</tilted></_>
    <_>
      <rects>
        <_>
          14 35 12 21 -1.</_>
        <_>
          18 35 4 21 3.</_></rects>
      <tilted>0</tilted></_>
    <_>
      <rects>
        <_>
          16 84 59 6 -1.</_>
        <_>
          16 87 59 3 2.</_></rects>
      <tilted>0</tilted></_>
    <_>
      <rects>
        <_>
          17 33 9 26 -1.</_>
        <_>
          20 33 3 26 3.</_></rects>
      <tilted>0</tilted></_>
    <_>
      <rects>
        <_>
          19 12 21 51 -1.</_>
        <_>
          19 29 21 17 3.</_></rects>
      <tilted>0</tilted></_>
    <_>
      <rects>
        <_>
          19 34 15 21 -1.</_>
        <_>
          24 34 5 21 3.</_></rects>
      <tilted>0</tilted></_>
    <_>
      <rects>
        <_>
          19 34 15 25 -1.</_>
        <_>
          24 34 5 25 3.</_></rects>
      <tilted>0</tilted></_>
    <_>
      <rects>
        <_>
          19 50 12 22 -1.</_>
        <_>
          19 50 6 11 2.</_>
        <_>
          25 61 6 11 2.</_></rects>
      <tilted>0</tilted></_>
    <_>
      <rects>
        <_>
          20 36 51 54 -1.</_>
        <_>
          20 54 51 18 3.</_></rects>
      <tilted>0</tilted></_>
    <_>
      <rects>
        <_>
          21 19 10 18 -1.</_>
        <_>
          21 19 5 9 2.</_>
        <_>
          26 28 5 9 2.</_></rects>
      <tilted>0</tilted></_>
    <_>
      <rects>
        <_>
          22 1 59 8 -1.</_>
        <_>
          22 5 59 4 2.</_></rects>
      <tilted>0</tilted></_>
    <_>
      <rects>
        <_>
          22 57 6 10 -1.</_>
        <_>
          22 57 3 5 2.</_>
        <_>
          25 62 3 5 2.</_></rects>
      <tilted>0</tilted></_>
    <_>
      <rects>
        <_>
          23 16 16 14 -1.</_>
        <_>
          23 16 8 7 2.</_>
        <_>
          31 23 8 7 2.</_></rects>
      <tilted>0</tilted></_>
    <_>
      <rects>
        <_>
          23 20 10 12 -1.</_>
        <_>
          23 20 5 6 2.</_>
        <_>
          28 26 5 6 2.</_></rects>
      <tilted>0</tilted></_>
    <_>
      <rects>
        <_>
          23 58 12 14 -1.</_>
        <_>
          23 58 6 7 2.</_>
        <_>
          29 65 6 7 2.</_></rects>
      <tilted>0</tilted></_>
    <_>
      <rects>
        <_>
          23 64 12 12 -1.</_>
        <_>
          23 64 6 6 2.</_>
        <_>
          29 70 6 6 2.</_></rects>
      <tilted>0</tilted></_>
    <_>
      <rects>
        <_>
          23 82 48 8 -1.</_>
        <_>
          23 86 48 4 2.</_></rects>
      <tilted>0</tilted></_>
    <_>
      <rects>
        <_>
          24 13 26 39 -1.</_>
        <_>
          24 26 26 13 3.</_></rects>
      <tilted>0</tilted></_>
    <_>
      <rects>
        <_>
          24 41 15 10 -1.</_>
        <_>
          29 41 5 10 3.</_></rects>
      <tilted>0</tilted></_>
    <_>
      <rects>
        <_>
          24 49 14 18 -1.</_>
        <_>
          24 49 7 9 2.</_>
        <_>
          31 58 7 9 2.</_></rects>
      <tilted>0</tilted></_>
    <_>
      <rects>
        <_>
          25 40 15 13 -1.</_>
        <_>
          30 40 5 13 3.</_></rects>
      <tilted>0</tilted></_>
    <_>
      <rects>
        <_>
          25 45 6 18 -1.</_>
        <_>
          25 45 3 9 2.</_>
        <_>
          28 54 3 9 2.</_></rects>
      <tilted>0</tilted></_>
    <_>
      <rects>
        <_>
          26 23 12 16 -1.</_>
        <_>
          26 23 6 8 2.</_>
        <_>
          32 31 6 8 2.</_></rects>
      <tilted>0</tilted></_>
    <_>
      <rects>
        <_>
          30 0 41 66 -1.</_>
        <_>
          30 22 41 22 3.</_></rects>
      <tilted>0</tilted></_>
    <_>
      <rects>
        <_>
          31 0 25 42 -1.</_>
        <_>
          31 14 25 14 3.</_></rects>
      <tilted>0</tilted></_>
    <_>
      <rects>
        <_>
          32 19 54 45 -1.</_>
        <_>
          50 19 18 45 3.</_></rects>
      <tilted>0</tilted></_>
    <_>
      <rects>
        <_>
          32 67 25 15 -1.</_>
        <_>
          32 72 25 5 3.</_></rects>
      <tilted>0</tilted></_>
    <_>
      <rects>
        <_>
          34 63 26 15 -1.</_>
        <_>
          34 68 26 5 3.</_></rects>
      <tilted>0</tilted></_>
    <_>
      <rects>
        <_>
          36 0 14 51 -1.</_>
        <_>
          36 17 14 17 3.</_></rects>
      <tilted>0</tilted></_>
    <_>
      <rects>
        <_>
          36 15 22 12 -1.</_>
        <_>
          36 19 22 4 3.</_></rects>
      <tilted>0</tilted></_>
    <_>
      <rects>
        <_>
          37 0 12 36 -1.</_>
        <_>
          37 12 12 12 3.</_></rects>
      <tilted>0</tilted></_>
    <_>
      <rects>
        <_>
          37 15 15 9 -1.</_>
        <_>
          37 18 15 3 3.</_></rects>
      <tilted>0</tilted></_>
    <_>
      <rects>
        <_>
          37 61 19 15 -1.</_>
        <_>
          37 66 19 5 3.</_></rects>
      <tilted>0</tilted></_>
    <_>
      <rects>
        <_>
          38 56 11 12 -1.</_>
        <_>
          38 60 11 4 3.</_></rects>
      <tilted>0</tilted></_>
    <_>
      <rects>
        <_>
          38 57 16 18 -1.</_>
        <_>
          38 63 16 6 3.</_></rects>
      <tilted>0</tilted></_>
    <_>
      <rects>
        <_>
          38 68 12 22 -1.</_>
        <_>
          38 79 12 11 2.</_></rects>
      <tilted>0</tilted></_>
    <_>
      <rects>
        <_>
          39 29 14 9 -1.</_>
        <_>
          39 32 14 3 3.</_></rects>
      <tilted>0</tilted></_>
    <_>
      <rects>
        <_>
          39 41 51 9 -1.</_>
        <_>
          56 41 17 9 3.</_></rects>
      <tilted>0</tilted></_>
    <_>
      <rects>
        <_>
          40 34 11 24 -1.</_>
        <_>
          40 42 11 8 3.</_></rects>
      <tilted>0</tilted></_>
    <_>
      <rects>
        <_>
          40 68 15 10 -1.</_>
        <_>
          40 73 15 5 2.</_></rects>
      <tilted>0</tilted></_>
    <_>
      <rects>
        <_>
          41 32 10 27 -1.</_>
        <_>
          41 41 10 9 3.</_></rects>
      <tilted>0</tilted></_>
    <_>
      <rects>
        <_>
          41 61 14 15 -1.</_>
        <_>
          41 66 14 5 3.</_></rects>
      <tilted>0</tilted></_>
    <_>
      <rects>
        <_>
          42 54 4 9 -1.</_>
        <_>
          42 57 4 3 3.</_></rects>
      <tilted>0</tilted></_>
    <_>
      <rects>
        <_>
          43 67 7 9 -1.</_>
        <_>
          43 70 7 3 3.</_></rects>
      <tilted>0</tilted></_>
    <_>
      <rects>
        <_>
          44 26 7 15 -1.</_>
        <_>
          44 31 7 5 3.</_></rects>
      <tilted>0</tilted></_>
    <_>
      <rects>
        <_>
          45 17 20 10 -1.</_>
        <_>
          45 17 10 5 2.</_>
        <_>
          55 22 10 5 2.</_></rects>
      <tilted>0</tilted></_>
    <_>
      <rects>
        <_>
          48 0 27 90 -1.</_>
        <_>
          48 30 27 30 3.</_></rects>
      <tilted>0</tilted></_>
    <_>
      <rects>
        <_>
          48 28 14 14 -1.</_>
        <_>
          48 28 7 7 2.</_>
        <_>
          55 35 7 7 2.</_></rects>
      <tilted>0</tilted></_>
    <_>
      <rects>
        <_>
          51 54 14 14 -1.</_>
        <_>
          51 54 7 7 2.</_>
        <_>
          58 61 7 7 2.</_></rects>
      <tilted>0</tilted></_>
    <_>
      <rects>
        <_>
          52 42 15 9 -1.</_>
        <_>
          57 42 5 9 3.</_></rects>
      <tilted>0</tilted></_>
    <_>
      <rects>
        <_>
          56 61 12 12 -1.</_>
        <_>
          56 61 6 6 2.</_>
        <_>
          62 67 6 6 2.</_></rects>
      <tilted>0</tilted></_>
    <_>
      <rects>
        <_>
          57 35 15 24 -1.</_>
        <_>
          62 35 5 24 3.</_></rects>
      <tilted>0</tilted></_>
    <_>
      <rects>
        <_>
          57 46 12 18 -1.</_>
        <_>
          57 46 6 9 2.</_>
        <_>
          63 55 6 9 2.</_></rects>
      <tilted>0</tilted></_>
    <_>
      <rects>
        <_>
          58 20 10 12 -1.</_>
        <_>
          58 20 5 6 2.</_>
        <_>
          63 26 5 6 2.</_></rects>
      <tilted>0</tilted></_>
    <_>
      <rects>
        <_>
          58 36 15 18 -1.</_>
        <_>
          63 36 5 18 3.</_></rects>
      <tilted>0</tilted></_>
    <_>
      <rects>
        <_>
          59 21 8 32 -1.</_>
        <_>
          59 21 4 16 2.</_>
        <_>
          63 37 4 16 2.</_></rects>
      <tilted>0</tilted></_>
    <_>
      <rects>
        <_>
          59 57 10 12 -1.</_>
        <_>
          59 57 5 6 2.</_>
        <_>
          64 63 5 6 2.</_></rects>
      <tilted>0</tilted></_>
    <_>
      <rects>
        <_>
          59 63 10 8 -1.</_>
        <_>
          59 63 5 4 2.</_>
        <_>
          64 67 5 4 2.</_></rects>
      <tilted>0</tilted></_>
    <_>
      <rects>
        <_>
          61 18 10 22 -1.</_>
        <_>
          61 18 5 11 2.</_>
        <_>
          66 29 5 11 2.</_></rects>
      <tilted>0</tilted></_>
    <_>
      <rects>
        <_>
          61 21 10 16 -1.</_>
        <_>
          61 21 5 8 2.</_>
        <_>
          66 29 5 8 2.</_></rects>
      <tilted>0</tilted></_>
    <_>
      <rects>
        <_>
          61 26 15 36 -1.</_>
        <_>
          66 26 5 36 3.</_></rects>
      <tilted>0</tilted></_>
    <_>
      <rects>
        <_>
          64 28 26 36 -1.</_>
        <_>
          77 28 13 36 2.</_></rects>
      <tilted>0</tilted></_>
    <_>
      <rects>
        <_>
          64 35 15 21 -1.</_>
        <_>
          69 35 5 21 3.</_></rects>
      <tilted>0</tilted></_></features></cascade>
</opencv_storage>
