<?xml version="1.0"?>
<opencv_storage>
<stage2>
  <maxWeakCount>10</maxWeakCount>
  <stageThreshold>-1.6160335540771484e+00</stageThreshold>
  <weakClassifiers>
    <_>
      <internalNodes>
        0 -1 22447773 -1.0945314541459084e-02</internalNodes>
      <leafValues>
        8.1224817037582397e-01 -2.1494464576244354e-01</leafValues></_>
    <_>
      <internalNodes>
        0 -1 13222020 -3.6508308257907629e-03</internalNodes>
      <leafValues>
        8.2515764236450195e-01 -2.3257468640804291e-01</leafValues></_>
    <_>
      <internalNodes>
        0 -1 27508431 -9.8082479089498520e-03</internalNodes>
      <leafValues>
        7.6089257001876831e-01 -3.3248069882392883e-01</leafValues></_>
    <_>
      <internalNodes>
        0 -1 14009404 7.4083841172978282e-04</internalNodes>
      <leafValues>
        -3.6939474940299988e-01 6.7639696598052979e-01</leafValues></_>
    <_>
      <internalNodes>
        0 -1 27321729 -3.9056004025042057e-03</internalNodes>
      <leafValues>
        8.3212590217590332e-01 -1.8965347111225128e-01</leafValues></_>
    <_>
      <internalNodes>
        0 -1 404981 9.7067244350910187e-03</internalNodes>
      <leafValues>
        -6.7570424079895020e-01 2.7860051393508911e-01</leafValues></_>
    <_>
      <internalNodes>
        0 -1 21660692 1.5411754138767719e-03</internalNodes>
      <leafValues>
        -3.5721343755722046e-01 5.3782373666763306e-01</leafValues></_>
    <_>
      <internalNodes>
        0 -1 18020079 -1.1948119848966599e-02</internalNodes>
      <leafValues>
        -7.2711730003356934e-01 2.2354266047477722e-01</leafValues></_>
    <_>
      <internalNodes>
        0 -1 21388587 5.2167810499668121e-03</internalNodes>
      <leafValues>
        -2.2293418645858765e-01 7.7346509695053101e-01</leafValues></_>
    <_>
      <internalNodes>
        0 -1 22564738 7.3557258583605289e-03</internalNodes>
      <leafValues>
        -2.4763849377632141e-01 7.5532388687133789e-01</leafValues></_></weakClassifiers></stage2>
</opencv_storage>
