<?xml version="1.0"?>
<opencv_storage>
<stage3>
  <maxWeakCount>10</maxWeakCount>
  <stageThreshold>-1.0801115036010742e+00</stageThreshold>
  <weakClassifiers>
    <_>
      <internalNodes>
        0 -1 21724857 1.0773047804832458e-02</internalNodes>
      <leafValues>
        -4.0458014607429504e-01 6.6469305753707886e-01</leafValues></_>
    <_>
      <internalNodes>
        0 -1 9430252 8.2188863307237625e-03</internalNodes>
      <leafValues>
        -2.9701444506645203e-01 7.8378474712371826e-01</leafValues></_>
    <_>
      <internalNodes>
        0 -1 27760881 -1.3830346986651421e-02</internalNodes>
      <leafValues>
        8.1662279367446899e-01 -2.6146197319030762e-01</leafValues></_>
    <_>
      <internalNodes>
        0 -1 10802726 -3.3089285716414452e-03</internalNodes>
      <leafValues>
        5.1085364818572998e-01 -4.3580311536788940e-01</leafValues></_>
    <_>
      <internalNodes>
        0 -1 6641513 1.0944977402687073e-02</internalNodes>
      <leafValues>
        -3.2416653633117676e-01 5.9376859664916992e-01</leafValues></_>
    <_>
      <internalNodes>
        0 -1 23514048 4.3110772967338562e-03</internalNodes>
      <leafValues>
        -2.6758232712745667e-01 6.3480877876281738e-01</leafValues></_>
    <_>
      <internalNodes>
        0 -1 21421820 -3.4168444108217955e-03</internalNodes>
      <leafValues>
        3.4323337674140930e-01 -4.8156008124351501e-01</leafValues></_>
    <_>
      <internalNodes>
        0 -1 28054322 -2.1879472769796848e-03</internalNodes>
      <leafValues>
        6.0986334085464478e-01 -2.4808226525783539e-01</leafValues></_>
    <_>
      <internalNodes>
        0 -1 15457511 9.9123287945985794e-03</internalNodes>
      <leafValues>
        -2.2270081937313080e-01 6.9038403034210205e-01</leafValues></_>
    <_>
      <internalNodes>
        0 -1 12070238 -2.2355258464813232e-02</internalNodes>
      <leafValues>
        -8.1100106239318848e-01 1.9452583789825439e-01</leafValues></_></weakClassifiers></stage3>
</opencv_storage>
