<?xml version="1.0"?>
<opencv_storage>
<stage4>
  <maxWeakCount>11</maxWeakCount>
  <stageThreshold>-1.4764405488967896e+00</stageThreshold>
  <weakClassifiers>
    <_>
      <internalNodes>
        0 -1 12829832 6.5739694982767105e-03</internalNodes>
      <leafValues>
        -5.4400849342346191e-01 5.5651468038558960e-01</leafValues></_>
    <_>
      <internalNodes>
        0 -1 15833915 5.1883459091186523e-03</internalNodes>
      <leafValues>
        -2.9046839475631714e-01 7.9364842176437378e-01</leafValues></_>
    <_>
      <internalNodes>
        0 -1 27542483 6.2034530565142632e-03</internalNodes>
      <leafValues>
        -2.8286218643188477e-01 8.1106317043304443e-01</leafValues></_>
    <_>
      <internalNodes>
        0 -1 12368249 7.7967359684407711e-03</internalNodes>
      <leafValues>
        -2.8242480754852295e-01 7.3033607006072998e-01</leafValues></_>
    <_>
      <internalNodes>
        0 -1 20347952 6.9337785243988037e-03</internalNodes>
      <leafValues>
        -2.9987642168998718e-01 6.9861131906509399e-01</leafValues></_>
    <_>
      <internalNodes>
        0 -1 28429023 1.7478037625551224e-02</internalNodes>
      <leafValues>
        -2.3180411756038666e-01 6.8579083681106567e-01</leafValues></_>
    <_>
      <internalNodes>
        0 -1 24883642 6.1957924626767635e-03</internalNodes>
      <leafValues>
        -2.1148683130741119e-01 7.3395967483520508e-01</leafValues></_>
    <_>
      <internalNodes>
        0 -1 14959318 7.2623146697878838e-03</internalNodes>
      <leafValues>
        -2.2458173334598541e-01 6.3034117221832275e-01</leafValues></_>
    <_>
      <internalNodes>
        0 -1 22916830 5.3945905528962612e-04</internalNodes>
      <leafValues>
        -3.0880299210548401e-01 4.8521524667739868e-01</leafValues></_>
    <_>
      <internalNodes>
        0 -1 17555068 -1.9497539848089218e-02</internalNodes>
      <leafValues>
        -6.5118485689163208e-01 2.2478340566158295e-01</leafValues></_>
    <_>
      <internalNodes>
        0 -1 21001084 1.7349340021610260e-02</internalNodes>
      <leafValues>
        -2.2362303733825684e-01 7.5053709745407104e-01</leafValues></_></weakClassifiers></stage4>
</opencv_storage>
