<?xml version="1.0"?>
<opencv_storage>
<stage2>
  <maxWeakCount>11</maxWeakCount>
  <stageThreshold>-1.3343381881713867e+00</stageThreshold>
  <weakClassifiers>
    <_>
      <internalNodes>
        0 -1 50756 3.1447529792785645e-02</internalNodes>
      <leafValues>
        -2.8089886903762817e-01 6.8659126758575439e-01</leafValues></_>
    <_>
      <internalNodes>
        0 -1 33233 9.3854703009128571e-03</internalNodes>
      <leafValues>
        -3.1663006544113159e-01 6.7889541387557983e-01</leafValues></_>
    <_>
      <internalNodes>
        0 -1 53337 3.0360823497176170e-02</internalNodes>
      <leafValues>
        -5.6360721588134766e-01 3.8609766960144043e-01</leafValues></_>
    <_>
      <internalNodes>
        0 -1 57520 -3.1240112148225307e-03</internalNodes>
      <leafValues>
        4.9056079983711243e-01 -4.1916179656982422e-01</leafValues></_>
    <_>
      <internalNodes>
        0 -1 3553 7.0298016071319580e-02</internalNodes>
      <leafValues>
        -4.9356341361999512e-01 3.4352523088455200e-01</leafValues></_>
    <_>
      <internalNodes>
        0 -1 65621 -4.0056006982922554e-03</internalNodes>
      <leafValues>
        3.7305328249931335e-01 -4.3458583950996399e-01</leafValues></_>
    <_>
      <internalNodes>
        0 -1 43553 -4.2219078168272972e-03</internalNodes>
      <leafValues>
        5.6555438041687012e-01 -2.7397331595420837e-01</leafValues></_>
    <_>
      <internalNodes>
        0 -1 72220 3.4628678113222122e-03</internalNodes>
      <leafValues>
        -1.9973012804985046e-01 6.3852596282958984e-01</leafValues></_>
    <_>
      <internalNodes>
        0 -1 51084 -7.6609877869486809e-03</internalNodes>
      <leafValues>
        4.9979701638221741e-01 -2.2694529592990875e-01</leafValues></_>
    <_>
      <internalNodes>
        0 -1 67968 1.6682036221027374e-03</internalNodes>
      <leafValues>
        -2.8613799810409546e-01 3.8220554590225220e-01</leafValues></_>
    <_>
      <internalNodes>
        0 -1 54593 -1.7892562318593264e-03</internalNodes>
      <leafValues>
        3.0146831274032593e-01 -3.3362829685211182e-01</leafValues></_></weakClassifiers></stage2>
</opencv_storage>
