<?xml version="1.0"?>
<opencv_storage>
<stage4>
  <maxWeakCount>13</maxWeakCount>
  <stageThreshold>-8.8341599702835083e-01</stageThreshold>
  <weakClassifiers>
    <_>
      <internalNodes>
        0 -1 76245 -1.1580031365156174e-02</internalNodes>
      <leafValues>
        6.7487686872482300e-01 -1.2417516857385635e-01</leafValues></_>
    <_>
      <internalNodes>
        0 -1 37821 -6.0308761894702911e-03</internalNodes>
      <leafValues>
        6.0556250810623169e-01 -2.8726020455360413e-01</leafValues></_>
    <_>
      <internalNodes>
        0 -1 4044 4.6864151954650879e-02</internalNodes>
      <leafValues>
        -5.1230782270431519e-01 3.6867767572402954e-01</leafValues></_>
    <_>
      <internalNodes>
        0 -1 63862 -1.3168032746762037e-03</internalNodes>
      <leafValues>
        5.0708913803100586e-01 -3.1497704982757568e-01</leafValues></_>
    <_>
      <internalNodes>
        0 -1 62264 -9.6101453527808189e-03</internalNodes>
      <leafValues>
        3.8327428698539734e-01 -3.7500450015068054e-01</leafValues></_>
    <_>
      <internalNodes>
        0 -1 55208 5.4990448988974094e-03</internalNodes>
      <leafValues>
        -6.7695957422256470e-01 1.9922645390033722e-01</leafValues></_>
    <_>
      <internalNodes>
        0 -1 49279 1.0130737209692597e-03</internalNodes>
      <leafValues>
        -6.2876015901565552e-01 1.5077354013919830e-01</leafValues></_>
    <_>
      <internalNodes>
        0 -1 66628 6.5723443403840065e-03</internalNodes>
      <leafValues>
        -1.8472249805927277e-01 5.5672031641006470e-01</leafValues></_>
    <_>
      <internalNodes>
        0 -1 46793 -1.0017160326242447e-02</internalNodes>
      <leafValues>
        5.6781208515167236e-01 -1.7709663510322571e-01</leafValues></_>
    <_>
      <internalNodes>
        0 -1 52896 -4.4672381132841110e-02</internalNodes>
      <leafValues>
        -6.3233584165573120e-01 1.5293076634407043e-01</leafValues></_>
    <_>
      <internalNodes>
        0 -1 49013 2.8243646956980228e-03</internalNodes>
      <leafValues>
        -2.1649624407291412e-01 3.9706543087959290e-01</leafValues></_>
    <_>
      <internalNodes>
        0 -1 38157 1.1613687500357628e-02</internalNodes>
      <leafValues>
        -1.6401679813861847e-01 5.4919350147247314e-01</leafValues></_>
    <_>
      <internalNodes>
        0 -1 43554 3.6713934969156981e-03</internalNodes>
      <leafValues>
        -2.6490998268127441e-01 4.3152329325675964e-01</leafValues></_></weakClassifiers></stage4>
</opencv_storage>
