<?xml version="1.0"?>
<opencv_storage>
<stage8>
  <maxWeakCount>15</maxWeakCount>
  <stageThreshold>-1.2025270462036133e+00</stageThreshold>
  <weakClassifiers>
    <_>
      <internalNodes>
        0 -1 2867371 -6.9215195253491402e-03</internalNodes>
      <leafValues>
        6.1639595031738281e-01 -2.2374428808689117e-01</leafValues></_>
    <_>
      <internalNodes>
        0 -1 1221693 -8.3060916513204575e-03</internalNodes>
      <leafValues>
        7.9847896099090576e-01 -2.0023414492607117e-01</leafValues></_>
    <_>
      <internalNodes>
        0 -1 1612084 -7.0153903216123581e-03</internalNodes>
      <leafValues>
        6.8716275691986084e-01 -2.1189989149570465e-01</leafValues></_>
    <_>
      <internalNodes>
        0 -1 2601185 6.8459305912256241e-03</internalNodes>
      <leafValues>
        -2.5817918777465820e-01 7.0971339941024780e-01</leafValues></_>
    <_>
      <internalNodes>
        0 -1 82807 1.8156478181481361e-02</internalNodes>
      <leafValues>
        -5.5076396465301514e-01 2.4796788394451141e-01</leafValues></_>
    <_>
      <internalNodes>
        0 -1 1235229 -1.7913099378347397e-02</internalNodes>
      <leafValues>
        -6.6908824443817139e-01 1.7616672813892365e-01</leafValues></_>
    <_>
      <internalNodes>
        0 -1 1997040 1.2040706351399422e-02</internalNodes>
      <leafValues>
        -1.9455295801162720e-01 7.1701264381408691e-01</leafValues></_>
    <_>
      <internalNodes>
        0 -1 1447585 6.3210828229784966e-03</internalNodes>
      <leafValues>
        -1.4775654673576355e-01 7.8607952594757080e-01</leafValues></_>
    <_>
      <internalNodes>
        0 -1 1837584 -1.2987535446882248e-02</internalNodes>
      <leafValues>
        -8.1482928991317749e-01 1.7942443490028381e-01</leafValues></_>
    <_>
      <internalNodes>
        0 -1 2577361 3.2854820601642132e-03</internalNodes>
      <leafValues>
        -2.8827616572380066e-01 5.1843643188476562e-01</leafValues></_>
    <_>
      <internalNodes>
        0 -1 942707 2.0572327077388763e-02</internalNodes>
      <leafValues>
        -2.0198456943035126e-01 5.5733394622802734e-01</leafValues></_>
    <_>
      <internalNodes>
        0 -1 2027635 6.3414778560400009e-03</internalNodes>
      <leafValues>
        -2.4073980748653412e-01 4.9604463577270508e-01</leafValues></_>
    <_>
      <internalNodes>
        0 -1 2557730 -4.5817503705620766e-03</internalNodes>
      <leafValues>
        8.6629825830459595e-01 -1.1318559199571609e-01</leafValues></_>
    <_>
      <internalNodes>
        0 -1 2662670 -3.4238625084981322e-04</internalNodes>
      <leafValues>
        -7.5795203447341919e-01 1.7192240059375763e-01</leafValues></_>
    <_>
      <internalNodes>
        0 -1 1705918 -1.4870708808302879e-02</internalNodes>
      <leafValues>
        -8.2492953538894653e-01 1.1731456220149994e-01</leafValues></_></weakClassifiers></stage8>
</opencv_storage>
