<?xml version="1.0"?>
<opencv_storage>
<stage6>
  <maxWeakCount>12</maxWeakCount>
  <stageThreshold>-1.1234099864959717e+00</stageThreshold>
  <weakClassifiers>
    <_>
      <internalNodes>
        0 -1 1121728 -8.5806110873818398e-03</internalNodes>
      <leafValues>
        8.1336545944213867e-01 -2.2778026759624481e-02</leafValues></_>
    <_>
      <internalNodes>
        0 -1 2126793 1.0572830215096474e-02</internalNodes>
      <leafValues>
        -2.3550669848918915e-01 6.8592214584350586e-01</leafValues></_>
    <_>
      <internalNodes>
        0 -1 47994 5.6469235569238663e-02</internalNodes>
      <leafValues>
        -4.7189652919769287e-01 4.2630973458290100e-01</leafValues></_>
    <_>
      <internalNodes>
        0 -1 2763827 8.2469023764133453e-03</internalNodes>
      <leafValues>
        -3.2556375861167908e-01 6.3429290056228638e-01</leafValues></_>
    <_>
      <internalNodes>
        0 -1 1521877 -5.9834262356162071e-03</internalNodes>
      <leafValues>
        6.2987744808197021e-01 -2.6765513420104980e-01</leafValues></_>
    <_>
      <internalNodes>
        0 -1 2624225 -8.7263071909546852e-03</internalNodes>
      <leafValues>
        7.8652191162109375e-01 -1.6990347206592560e-01</leafValues></_>
    <_>
      <internalNodes>
        0 -1 2099521 4.9162970390170813e-04</internalNodes>
      <leafValues>
        -5.8261287212371826e-01 2.5697067379951477e-01</leafValues></_>
    <_>
      <internalNodes>
        0 -1 2265347 2.0252401009202003e-03</internalNodes>
      <leafValues>
        -4.6511381864547729e-01 2.8219872713088989e-01</leafValues></_>
    <_>
      <internalNodes>
        0 -1 2580054 3.6868455354124308e-03</internalNodes>
      <leafValues>
        -1.8840144574642181e-01 7.0789009332656860e-01</leafValues></_>
    <_>
      <internalNodes>
        0 -1 1924235 1.8635379150509834e-02</internalNodes>
      <leafValues>
        -1.5772500634193420e-01 6.9835001230239868e-01</leafValues></_>
    <_>
      <internalNodes>
        0 -1 2262749 -2.3271404206752777e-03</internalNodes>
      <leafValues>
        3.1182691454887390e-01 -4.2045432329177856e-01</leafValues></_>
    <_>
      <internalNodes>
        0 -1 2524240 9.4738584011793137e-03</internalNodes>
      <leafValues>
        -2.0940279960632324e-01 5.9730505943298340e-01</leafValues></_></weakClassifiers></stage6>
</opencv_storage>
