<?xml version="1.0"?>
<opencv_storage>
<stage2>
  <maxWeakCount>9</maxWeakCount>
  <stageThreshold>-1.6131600141525269e+00</stageThreshold>
  <weakClassifiers>
    <_>
      <internalNodes>
        0 -1 1761627 6.9606984034180641e-03</internalNodes>
      <leafValues>
        -1.9685922563076019e-01 7.7987718582153320e-01</leafValues></_>
    <_>
      <internalNodes>
        0 -1 2725665 4.9384031444787979e-03</internalNodes>
      <leafValues>
        -2.8725400567054749e-01 8.0435818433761597e-01</leafValues></_>
    <_>
      <internalNodes>
        0 -1 1998259 1.2544116005301476e-02</internalNodes>
      <leafValues>
        -2.6994654536247253e-01 8.4186267852783203e-01</leafValues></_>
    <_>
      <internalNodes>
        0 -1 1580028 3.4068310633301735e-03</internalNodes>
      <leafValues>
        -3.3057484030723572e-01 7.5768417119979858e-01</leafValues></_>
    <_>
      <internalNodes>
        0 -1 61877 3.8697287440299988e-02</internalNodes>
      <leafValues>
        -4.5966425538063049e-01 5.0488704442977905e-01</leafValues></_>
    <_>
      <internalNodes>
        0 -1 2470399 6.8155964836478233e-03</internalNodes>
      <leafValues>
        -3.4329038858413696e-01 6.0786294937133789e-01</leafValues></_>
    <_>
      <internalNodes>
        0 -1 1368953 8.1447958946228027e-03</internalNodes>
      <leafValues>
        -4.2157405614852905e-01 4.6875897049903870e-01</leafValues></_>
    <_>
      <internalNodes>
        0 -1 1699129 2.4229414761066437e-02</internalNodes>
      <leafValues>
        -1.9324883818626404e-01 8.6480981111526489e-01</leafValues></_>
    <_>
      <internalNodes>
        0 -1 2065671 1.2313697487115860e-02</internalNodes>
      <leafValues>
        -1.9900685548782349e-01 7.8805184364318848e-01</leafValues></_></weakClassifiers></stage2>
</opencv_storage>
