<?xml version="1.0"?>
<opencv_storage>
<stage5>
  <maxWeakCount>17</maxWeakCount>
  <stageThreshold>-1.2392649650573730e+00</stageThreshold>
  <weakClassifiers>
    <_>
      <internalNodes>
        0 -1 1056197 2.2731572389602661e-02</internalNodes>
      <leafValues>
        -2.0503006875514984e-01 7.0198428630828857e-01</leafValues></_>
    <_>
      <internalNodes>
        0 -1 2352257 1.6046520322561264e-02</internalNodes>
      <leafValues>
        -2.7877536416053772e-01 6.7851686477661133e-01</leafValues></_>
    <_>
      <internalNodes>
        0 -1 1222661 4.7372769564390182e-02</internalNodes>
      <leafValues>
        -5.9879881143569946e-01 2.9284709692001343e-01</leafValues></_>
    <_>
      <internalNodes>
        0 -1 2125551 -1.3789501041173935e-02</internalNodes>
      <leafValues>
        6.1567676067352295e-01 -2.4853058159351349e-01</leafValues></_>
    <_>
      <internalNodes>
        0 -1 1281755 5.6282524019479752e-03</internalNodes>
      <leafValues>
        -3.9995515346527100e-01 4.0673908591270447e-01</leafValues></_>
    <_>
      <internalNodes>
        0 -1 2607790 8.9621944352984428e-03</internalNodes>
      <leafValues>
        -1.8199993669986725e-01 6.8825203180313110e-01</leafValues></_>
    <_>
      <internalNodes>
        0 -1 569761 5.4315980523824692e-03</internalNodes>
      <leafValues>
        -2.9134801030158997e-01 3.7009811401367188e-01</leafValues></_>
    <_>
      <internalNodes>
        0 -1 1555268 -8.8532362133264542e-03</internalNodes>
      <leafValues>
        -7.6092815399169922e-01 1.1559797078371048e-01</leafValues></_>
    <_>
      <internalNodes>
        0 -1 1971394 1.3538485392928123e-02</internalNodes>
      <leafValues>
        -1.8574231863021851e-01 6.0584473609924316e-01</leafValues></_>
    <_>
      <internalNodes>
        0 -1 1840088 2.3232670500874519e-02</internalNodes>
      <leafValues>
        -1.3092932105064392e-01 6.4141684770584106e-01</leafValues></_>
    <_>
      <internalNodes>
        0 -1 1413593 -1.5587157569825649e-02</internalNodes>
      <leafValues>
        5.8120822906494141e-01 -1.6608284413814545e-01</leafValues></_>
    <_>
      <internalNodes>
        0 -1 335110 2.7647463139146566e-03</internalNodes>
      <leafValues>
        -2.5546145439147949e-01 3.2298699021339417e-01</leafValues></_>
    <_>
      <internalNodes>
        0 -1 1636010 -2.1667878609150648e-03</internalNodes>
      <leafValues>
        3.3944609761238098e-01 -2.4020227789878845e-01</leafValues></_>
    <_>
      <internalNodes>
        0 -1 1246946 -8.7930988520383835e-03</internalNodes>
      <leafValues>
        -5.8653354644775391e-01 1.3497318327426910e-01</leafValues></_>
    <_>
      <internalNodes>
        0 -1 2253505 -1.9537188112735748e-02</internalNodes>
      <leafValues>
        6.5030223131179810e-01 -1.2707431614398956e-01</leafValues></_>
    <_>
      <internalNodes>
        0 -1 1826940 -1.5637006610631943e-02</internalNodes>
      <leafValues>
        -6.7367744445800781e-01 1.3945060968399048e-01</leafValues></_>
    <_>
      <internalNodes>
        0 -1 2036226 7.6053524389863014e-03</internalNodes>
      <leafValues>
        1.6330322623252869e-01 -4.1619977355003357e-01</leafValues></_></weakClassifiers></stage5>
</opencv_storage>
